-1.6646052855080853E-146	2.5E-323	-3.449099591620174E-147	-2.5E-323	-2.5E-323	-2.5E-323	2.5E-323	-2.0619358413737434E-05	-2.5E-323	1.1722745998568904E-06	-2.1856336655866025E-05	2.5E-323	2.1856336655866025E-05	2.2461723584090768E-147	1.9296177151237655E-05	5.33543650558594E-08	0.0036738584276288407	0.0012601044692683583	-7.839376724222902E-245	-0.0012601044692683583	-6.846761622730192E-92	-0.0013815414303996855	-0.00025431434340060505	-0.013043088983251048	0.0010175225484477088	-3.817046005088833E-07	0.0012803324793179138	6.846761622730192E-92	-0.00362030952146093	-0.009183265606506475	0.008901927314932261	-0.009074494780085395	0.0029829900707654734	-0.0012803324793179138	-8.212351798610595E-06	-0.02466927092494022	0.009782010476853365	0.025083214403645603	0.017382223297801692	-0.017167299306048073	0.007707161408847541	0.001871368555866646
3.28221402152654E-147	2.5E-323	-4.109487961491194E-147	-2.5E-323	2.5E-323	2.5E-323	-2.5E-323	-0.0017537087037659657	2.5E-323	-3.3966646324017117E-07	0.0002084911266788511	2.5E-323	-0.0002084911266788511	2.4532819635856605E-147	0.0014557755964775957	1.2637137044830726E-08	5.231316115405187E-05	0.0003396392516413927	1.314697728232376E-244	-0.0003396392516413927	-3.1714540295478E-94	-0.004112646477673648	6.181031201860026E-08	0.005774831445184178	0.005747024069705605	2.1753893531178012E-07	-0.0003208331599011076	3.1714540295478E-94	0.0030115789928059303	0.0007393102821543684	-0.006581055733854129	0.0052463058874392034	-0.0067960118918419955	0.0003208331599011076	0.00043605531627968427	0.00045776692454816846	-0.0032571650138980748	0.0012179779940595056	-0.012938545304032146	0.009638249006077165	-0.0008006428487102087	0.0024626349779695808
2.6311930354066223E-146	-2.5E-323	-7.605786643000877E-147	2.5E-323	2.5E-323	2.5E-323	2.5E-323	-0.001611330209384425	2.5E-323	-1.3835852824448936E-06	-0.0006786371899642512	-2.5E-323	0.0006786371899642512	5.296523787439983E-147	0.0016859590079221188	2.0649182150355877E-06	2.096087472567227E-05	5.9391066620846265E-05	2.3026047544133114E-245	-5.9391066620846265E-05	-1.3291809628408597E-91	0.00023983547647095762	-2.1743522787840956E-05	0.023662050518486594	0.011937485553351628	-5.039853652928939E-06	-0.000141849119938758	1.3291809628408597E-91	0.018756926600311898	-0.004318368588320946	-0.036535514120121	-0.010965333276066379	-0.012789983043085578	0.000141849119938758	0.0011429455846784606	0.0074158148246311825	-0.0006499481189883477	-0.012824833317259584	-0.07197898929304115	0.06902374437898298	-0.00028455291556491466	0.018099232105779007
-1.3229210308017807E-146	-2.5E-323	-4.367097540378665E-147	2.5E-323	-2.5E-323	2.5E-323	2.5E-323	-1.0914226037382036E-05	-2.5E-323	1.9981366316557123E-06	2.1250271071949524E-06	-2.5E-323	-2.1250271071949524E-06	2.2893788973701402E-147	-0.00011983695769340991	1.0999728123556425E-07	9.203441623236246E-06	-7.855080190348457E-07	3.7047544107769873E-246	7.855080190348457E-07	-7.319701020331878E-94	0.0009025822523418817	0.0009564108437811949	-9.670883450052232E-05	-0.0383923744105764	4.321979236137938E-06	-6.91281233357736E-06	7.319701020331878E-94	-0.04526176877825446	-0.0007006815362465082	0.04226961439737358	0.03986073194129601	0.04191561131819661	6.91281233357736E-06	0.0005722396831683644	0.038956282443589424	0.0012908859459976815	-0.03865446074359409	-0.04231635695916536	0.041649595228698565	-0.0030533841432948713	-0.03978310101985258
3.8099724340767407E-147	2.5E-323	-5.471467593232052E-147	-2.5E-323	-2.5E-323	2.5E-323	2.5E-323	1.217716204232085E-05	-2.5E-323	0.00011745157445825044	-2.6006230842690653E-07	-2.5E-323	2.6006230842690653E-07	3.8711912881469663E-147	0.00013974146703271296	9.167777414098929E-08	0.001276340086510317	8.045536347251209E-06	1.9784680654617998E-247	-8.045536347251209E-06	-1.0211004568966889E-91	0.0003433613440378306	-0.00022642752457617516	-0.005433206776363946	0.0543861179757635	-9.637554513312458E-05	1.4857098544580777E-05	1.0211004568966889E-91	0.03591139252495779	-0.006184886437977158	-0.04937034721143736	-0.045376150953231345	-0.052358541808378775	-1.4857098544580777E-05	0.0005717582342127954	-0.06027706967990354	0.011908876789469846	0.06064336786063605	0.051458110178052685	-0.05131753167625311	0.0020256078958126892	0.05184614284249359
2.299516927383571E-145	2.5E-323	-2.35921955668979E-145	-2.5E-323	2.5E-323	-2.5E-323	-2.5E-323	-6.2239226849728186E-06	2.5E-323	-3.2646642062262514E-07	4.156872210222542E-07	2.5E-323	-4.156872210222542E-07	1.918686404415396E-145	2.885714321688937E-05	-4.93682003988737E-08	-2.8200235349289815E-05	4.8728334993643875E-06	-1.919738885269515E-246	-4.8728334993643875E-06	-5.27418130487867E-93	-0.0007180818699843957	1.3073313745046409E-05	8.99109414485038E-05	0.0009069879272034552	8.036719130613103E-07	-9.177316281360444E-07	5.27418130487867E-93	0.006217257964858922	6.087752599514492E-05	-0.0009997423674283274	-0.0005395175311698757	-0.0011180620711216968	9.177316281360444E-07	-0.0006596021899201595	0.0032204439067956645	-0.003776627262909383	-0.003431395134360916	5.0576495642633474E-05	-0.00014991630905696442	-0.0006761584236763647	0.0015151142614640452
2.549198558725917E-145	2.5E-323	-2.5710268407297217E-145	-2.5E-323	2.5E-323	2.5E-323	-2.5E-323	-0.002050940217453455	-2.5E-323	3.6377675008910443E-07	-1.5026497599013256E-05	2.5E-323	1.5026497599013256E-05	1.2364230144542388E-145	0.0020468200648556647	2.0294386718236834E-06	0.004470710386720806	-9.859769711936012E-06	1.1945519942161144E-246	9.859769711936012E-06	-2.4887389432421684E-92	0.00040191995310470533	-0.0009881006706851433	-0.012810698213434314	0.003208555925933061	8.044375958631306E-07	-6.700375463333941E-06	2.4887389432421684E-92	0.03787704145548678	-0.005874678062758822	-0.004554821866849269	-0.03829443880022852	-0.027790533138367476	6.700375463333941E-06	-3.4437655591122573E-06	-0.04084264959151088	0.01626187532582553	0.039767530253654794	-0.03305290990211777	0.029498811255570273	0.0007675381125600169	0.03195921384223537
-8.124323456700012E-148	2.5E-323	8.486474015991597E-148	2.5E-323	-2.5E-323	2.5E-323	-2.5E-323	-3.0347560109673617E-05	-2.5E-323	4.139376894446375E-06	-5.874528768432008E-06	2.5E-323	5.874528768432008E-06	-1.0091021102019902E-147	-0.00022308652632059745	1.1695593063396156E-07	3.7853157708364934E-05	-5.556784615338503E-06	1.3217881070594925E-246	5.556784615338503E-06	-4.003175924107776E-95	-0.0001383585639498715	2.3367848608816066E-05	0.00010324869224720507	0.00032327606778659383	7.197468296360522E-06	-9.228247587419213E-06	4.003175924107776E-95	-0.0010631903878922761	-2.8924297795497222E-05	-0.0005604157478910827	-0.0006430394949347814	-0.0004883056456060453	9.228247587419213E-06	1.3380580905060912E-05	0.0012413533316602391	0.00017036383249840074	0.00038320237303998564	-0.0003037144921591478	0.0002463322943688719	7.757520929553926E-05	0.0008479755274184548
3.0373487210679122E-148	-2.5E-323	8.645128036145737E-148	2.5E-323	2.5E-323	2.5E-323	-2.5E-323	-0.0014042623959927753	2.5E-323	-1.3100777762003902E-06	0.0003020837285814888	2.5E-323	-0.0003020837285814888	-4.768765444535471E-148	0.0010743048790128828	-8.724484667671619E-08	-7.152787189276845E-05	0.00023535395835148427	-2.3583840745344726E-245	-0.00023535395835148427	2.2750669962900768E-94	-0.0007499066194283733	-6.969891460657923E-06	-0.0007042037194275328	-0.0008506922020574471	-1.0680424722130743E-07	-0.0010593546586249109	-2.2750669962900768E-94	0.008221821900666277	0.0007430312935647458	-2.8123168216394497E-05	-0.0017038671557707216	-0.0004949913590194789	0.0010593546586249109	-0.0002985410288707734	-0.0008516000444396725	-0.007430864361293619	-0.0002803586894983745	-0.010042758404164772	0.004424222904586533	0.007567207019566101	0.002889583041006922
-2.9737695147010344E-145	-2.5E-323	3.1784776796334775E-145	-2.5E-323	-2.5E-323	-2.5E-323	-2.5E-323	-0.0006357120669290476	-2.5E-323	-5.4789479576326134E-05	0.0009356874939833691	2.5E-323	-0.0009356874939833691	-2.44948087020862E-145	0.0007013412855166833	-5.156109280035072E-07	-0.00534692676819332	0.0005898522057368144	-6.00092159828644E-246	-0.0005898522057368144	2.157981661330226E-92	-0.0008743357232375067	0.0021881137633200324	0.018533744463385977	-0.00314811605915311	0.00011403250550105601	-0.00024206476415280416	-2.157981661330226E-92	-0.06308128175851406	0.0040307094974820785	0.009570453569431366	0.065995310275551	0.05031176328236764	0.00024206476415280416	-1.8484709885958106E-05	0.06689054515084121	-0.03113840787490349	-0.06604640323144939	-0.06686332418259983	0.06627847002583588	0.00024493385183739936	-0.047651120205700274
-2.5634580224754155E-146	-2.5E-323	6.422062621589432E-147	2.5E-323	2.5E-323	-2.5E-323	-2.5E-323	-1.2372259644758442E-05	2.5E-323	-6.9550347583599555E-06	-2.9934434717755695E-06	2.5E-323	2.9934434717755695E-06	-4.5792234301004996E-147	-0.0001299757141531823	-2.2491035775539673E-07	-0.0010839394102449829	-6.068199020221622E-06	-8.881518820476866E-245	6.068199020221622E-06	7.394189342891527E-94	-0.00042011184415402124	-4.90263215098719E-05	0.0038825713416003865	-0.02797231469151599	-7.204103823775008E-06	-1.6924662385895946E-05	-7.394189342891527E-94	-0.008496331958824594	0.00022147694501467157	0.02411025032513839	0.022265362517634543	0.02537790945866242	1.6924662385895946E-05	-1.4762645092028925E-05	0.032534203958682145	-0.013132618829057943	-0.03529911185276156	-0.02060545019040937	0.021868206959985707	-9.185591513380487E-06	-0.023020396148896696
9.863705092204988E-146	2.5E-323	-1.2663539372281764E-145	-2.5E-323	-2.5E-323	-2.5E-323	2.5E-323	3.421015380236388E-05	-2.5E-323	6.04662565186644E-06	4.561440483582292E-06	2.5E-323	-4.561440483582292E-06	1.2427231903833752E-145	3.29730776927591E-05	1.5030931767723573E-07	-3.1327303452137773E-05	5.77662584948381E-06	-5.399051196614245E-247	-5.77662584948381E-06	-1.7629606430057652E-94	0.00036778689019654814	4.262225120206463E-05	-0.0010456984953220597	0.0006841263167634458	7.857486818785548E-06	1.2379740144563818E-05	1.7629606430057652E-94	-0.016171865514457467	-2.4716334927029814E-05	0.0005544881084568619	0.002131283554516101	0.0017004790622882834	-1.2379740144563818E-05	-0.0008527136441454383	-0.015119993242516791	0.009429288819274254	0.011156770909506937	0.014088259216832908	-0.008866128868949585	0.0023029306313344855	-0.00042683000988482473
2.7130877706010335E-145	-2.5E-323	-2.929357961844827E-145	2.5E-323	2.5E-323	2.5E-323	2.5E-323	-1.2956700524569326E-05	2.5E-323	-2.1836325925205905E-06	-1.0862046088301616E-06	2.5E-323	1.0862046088301616E-06	2.1636094731493178E-145	1.3547685738792426E-05	-4.4052620367811863E-08	2.128273380984193E-05	3.361147224962131E-06	-5.554253846090023E-246	-3.361147224962131E-06	-5.106907203129012E-92	-3.795055539782404E-05	-2.660061198911275E-05	0.00020600724653547966	9.418653781361567E-05	-4.066854113692435E-06	9.204394122543604E-07	5.106907203129012E-92	0.0004907522132347415	0.00039919061300373263	-0.000578879638879952	-0.0006442752048542826	-0.0003950386243386496	-9.204394122543604E-07	0.00034574796838855043	-0.0709504934190226	-0.0004128100481244981	0.06670182416673404	-0.0040054588808146	0.002440378945607979	0.001785774756214107	0.004572065356191804
1.5110599838166268E-147	2.5E-323	-2.3419628611848645E-147	-2.5E-323	-2.5E-323	-2.5E-323	2.5E-323	-0.0015521639171547936	-2.5E-323	6.167942700547153E-05	-0.0021044593403139046	2.5E-323	0.0021044593403139046	9.794031647378694E-148	0.0014215932184700637	4.076114029991676E-06	0.0027459800999231985	-0.001546127294099963	2.3289683411756754E-247	0.001546127294099963	-1.9700350842729114E-92	-0.003294090417143418	0.00038803093636656603	-0.01446627392292221	-0.010628650689602212	3.5198882369234344E-05	-0.001534720806400727	1.9700350842729114E-92	-0.019363861022471007	-0.006185607712901692	0.027986924096618106	0.015907228963945683	0.016430434849658147	0.001534720806400727	-0.0003968490358139111	-0.002427416535714731	0.007169316208884488	0.002611879694130511	0.009620970105133247	-0.010767636542336489	0.0017869325895039454	-0.017087695389978196
2.00222727780773E-146	2.5E-323	-1.217578009282195E-146	2.5E-323	-2.5E-323	2.5E-323	2.5E-323	-0.0016551770251385038	-2.5E-323	9.113658482190624E-05	-0.0006394132003320058	2.5E-323	0.0006394132003320058	8.196627378500027E-147	0.0016938314875182489	6.330920762174743E-06	0.0012252689016062335	-2.9377067077199088E-05	4.918172105322991E-245	2.9377067077199088E-05	-9.61440324291876E-92	-0.0008245545349942388	-0.0005093432974839191	0.005903078207710775	0.00030833485309328385	-4.256876327728886E-05	7.033613769896765E-05	9.61440324291876E-92	0.01956162425145687	-0.0036682127276436655	-0.012786226660192966	-0.015063135337555475	-0.010217729371894786	-7.033613769896765E-05	0.0014902869861339537	-0.0073975828341482815	0.004726287147103249	0.0037882066230230313	-0.030113820394707756	0.02803239903119984	-0.0006274603900393418	0.016079026342646654
-5.106255114281897E-147	-2.5E-323	5.651864060483984E-147	-2.5E-323	2.5E-323	-2.5E-323	-2.5E-323	-1.343538009135316E-05	-2.5E-323	-6.52482424313383E-05	2.014654087568471E-06	-2.5E-323	-2.014654087568471E-06	-3.8538095585687365E-147	-2.616755249505729E-05	-9.563522880436958E-06	-0.003687518998030178	-5.722891637733375E-06	-1.7293881522933774E-246	5.722891637733375E-06	1.421957215523999E-91	0.0009369751289678528	0.00012291764750794361	0.008679898095207772	0.0004739168255306332	8.138104201622733E-07	-2.096826331794738E-05	-1.421957215523999E-91	-0.016537421694735356	0.009178546844993762	-0.0008339767519897163	0.017908493301600544	0.014834464213741254	2.096826331794738E-05	-4.9526427220345306E-06	0.02391617632434232	-0.01622899290715604	-0.025193440382473054	-0.02286006779179986	0.024496596467387725	-0.00013947648073480356	-0.01494853631216074
3.245324789554814E-147	-2.5E-323	-8.26233146875409E-147	2.5E-323	-2.5E-323	-2.5E-323	2.5E-323	-0.0005867839485395284	-2.5E-323	1.9371101117488808E-07	-0.0002478182855609763	-2.5E-323	0.0002478182855609763	4.4779151687875607E-147	0.0005890998354091358	1.0329810842608266E-07	-4.1488856527863053E-05	-0.0003542776333110651	4.2447611764062616E-244	0.0003542776333110651	-1.2625360319043292E-93	-0.0005786647768290116	1.2910246231547056E-05	-0.028134222032612583	-0.001973960756698641	1.7393594808779276E-06	-0.001618622964295558	1.2625360319043292E-93	-0.0026738338298254796	-0.00086511441955392	0.028299283325254374	0.005934394427864129	0.00011973645843559585	0.001618622964295558	0.00021394148679593425	-0.021969127560753903	-0.0003976098538153472	0.027225821604499788	0.02859550639434708	-0.03066024285839615	0.000605021522277086	-0.0037167027761627167
-3.361269178710829E-145	2.5E-323	5.2966554134091276E-145	-2.5E-323	-2.5E-323	-2.5E-323	-2.5E-323	0.0005035506800950187	-2.5E-323	2.8215274572816224E-08	0.0003581371142869016	2.5E-323	-0.0003581371142869016	-3.227115714594435E-145	-0.0005031344985031743	-7.116261707287594E-08	-4.325431334868165E-05	6.218515663269305E-05	-2.3458189743190984E-244	-6.218515663269305E-05	7.417943492148856E-92	-0.0023943886764916686	1.3433668622277599E-05	-0.0017660204569391067	-0.0015802835552904345	3.66142800376813E-07	-0.000955410563130263	-7.417943492148856E-92	0.0006093464907252642	0.0003754736407160483	0.001954126195420462	0.0015997016231506008	0.0005146806494549878	0.000955410563130263	-0.0013243473296320112	0.08643873930892773	0.0013199554990123731	-0.0775085260689551	0.005333785696171546	-0.005943157468391264	-0.00029516616653681106	-0.007304838113665933
1.0255782620599197E-146	2.5E-323	-6.069735901850888E-147	2.5E-323	2.5E-323	2.5E-323	2.5E-323	-0.0009251855187591371	2.5E-323	-2.0696266390378695E-07	-1.4155732000111071E-05	2.5E-323	1.4155732000111071E-05	3.690152199509036E-147	0.000925331682867112	3.068234166945234E-08	-0.0005058661908625322	-5.84700588871508E-06	-2.7158497814732784E-245	5.84700588871508E-06	-7.585290615536966E-94	0.00012745292046543912	0.0002169342234347517	0.036713576970294044	-0.013879572014790086	4.897211183865313E-05	-1.7034365502153815E-06	7.585290615536966E-94	0.015727396195981076	0.0008125258870089738	-0.031082695033251406	-0.008511286879484603	-0.006425026653244403	1.7034365502153815E-06	-0.00033640738195684603	0.03462354751131105	0.005883323071820877	-0.03470702410843658	-0.0856647430567137	0.08344400364092686	-0.0047880602261315955	0.008302979128004307
9.572591587047277E-146	-2.5E-323	2.7711166059001884E-147	2.5E-323	2.5E-323	2.5E-323	-2.5E-323	-0.0008656452263527009	2.5E-323	-3.03303410849266E-06	-8.736166597264833E-06	2.5E-323	8.736166597264833E-06	-1.825867933522523E-147	0.0008623990770313819	-1.3234913031248058E-07	0.0022373421634719875	-4.905796500141984E-06	-1.2029814734344401E-244	4.905796500141984E-06	5.309654397683537E-92	0.0007000248105016723	-0.002257244508952054	0.021962674724442095	0.02773705924199739	-3.2015070369399324E-06	3.450340195043188E-05	-5.309654397683537E-92	0.05987665189635385	-0.0012349860275435744	-0.06666228057446584	-0.05722549540205869	-0.05355240646876671	-3.450340195043188E-05	-6.8382552067655405E-06	-0.02536784026646223	0.0155950950225996	0.022889774947912167	-0.035250154572328496	0.0334339547302262	-0.0007106011251179726	0.05784488270299443
3.172163150206708E-146	-2.5E-323	-4.028118524635257E-146	-2.5E-323	-2.5E-323	-2.5E-323	-2.5E-323	-0.001170671877764398	2.5E-323	-7.39531251056606E-05	-0.00030882386230799325	2.5E-323	0.00030882386230799325	1.94033972429171E-146	0.0011706509971251987	-5.892147455030387E-06	-0.004408490437076085	-0.00031228152226417876	-1.4541799344678059E-246	0.00031228152226417876	2.322821565463311E-92	0.0010372460788351152	0.0014979107720815032	0.01799602920914855	-0.0040088658257177445	0.00010803118382638286	-0.0016385029030876036	-2.322821565463311E-92	-0.01038647054507278	0.008002279219868257	-0.009548651740424623	0.01616618836765903	0.006395026302936417	0.0016385029030876036	-1.4582077438210045E-05	0.030955942879532374	-0.010284286548114049	-0.03268526142521426	-0.01360462492647114	0.013771758189299517	-0.0017113069001863839	-0.00919800562427198