0.008220310996446713	0.011396642127921283	0.04138610347654323	-0.01178368325127113	0.004034063827065699	0.0029391243154890494	0.0026791081973281607	0.0015220706978734486	-0.041372430383729564	0.005024031007496652	-0.05374335663222204	0.0038748674979668073	0.07547146099446497	0.006304544930021603	0.001446934613035281	0.057269590967431734	0.0049270119814785	0.004012278304776268	0.007141450887400099	0.0006435903419271527	0.0028506937765931223
-0.016474495573704177	-0.012838493852005636	-0.004151248139331633	0.008944373423117791	-0.010966160419231989	-0.004473807071471459	0.00027895099748388415	-0.0077942429409967855	0.3497007554369972	-0.015567441820544795	0.15112860483686585	-0.006259226620973622	0.02963260613981237	-0.010497324294668358	-0.0003420172435119804	-0.0045007122859687596	-0.007307689011242147	-0.009988925259790291	-0.010178148163332675	-0.0027637349978458198	-0.004332242028534404
-0.00121222569268173	-0.0021145986061873387	0.0033394749383718328	0.005516257625416285	-0.000981261974873532	-0.0006827381662340399	-0.0005669315694847008	-0.0019208506746428338	0.021391149179436644	-0.00206169837898298	-0.009037965193938487	-0.0015457520720259564	0.027095487738091548	-0.0017294203341652221	0.005748090351057729	0.004109266732557657	-0.0015508865803146497	-0.00192670411702105	-0.001169582782657129	0.0007173065220075099	-0.001295955551123191
0.0037984125218025826	0.006478491768060958	-0.054984330675309105	-0.01154279447262991	0.0017890195962604414	0.0007591386724037077	-6.107055258122906E-05	0.0037511673704941958	-0.09901578442654385	0.004631378055468291	0.03656163720134123	0.003437793170037147	-0.149482018369119	0.005023201348354997	0.0007489396438821245	-0.07282586080451543	0.004000020096900551	0.004461540975998599	0.003167164961020211	6.496213229717799E-05	0.0037456518478145096
0.0012517692226151071	-0.0017805599334519435	-0.017392067099693403	0.009025824728077442	-0.0008911032826889805	-4.882590804230699E-05	-0.002069245344550512	-0.001704713036317979	-0.033449280430104235	-0.00031228837742072345	-5.924868931463491E-06	-0.0007404219850520365	-0.04478993310085605	-0.0006566049345992965	0.0032645801303112284	-0.021285859671577104	-0.0009372738391098375	-0.0022269309926227924	0.00021607012422588518	0.0014032113942555463	-0.00011852719944029414
0.0030515558985955565	0.0001663115047717779	0.03530407023580478	0.004070321141667465	0.004200562803485481	0.0014165810984458848	-0.0010375886135012456	0.0013895939650789286	0.09205279869130226	0.00044085431278054893	-0.043880836816678176	-0.00027763166212478206	0.09879551830744203	-0.00030505692838069583	0.0032352503982420442	0.046583039458056086	-0.0001377614488650826	0.0016068189334468895	0.000631263047135254	0.0025150449016192707	0.0010571671324871353
0.009762658851175693	0.0031109908228582174	-0.015872079402060257	-0.0025520743564009865	0.0052910034859009	0.002351227746484585	0.004093491056268155	0.003913514944249423	-0.18109221427270122	0.009018134075069207	-0.05144317705943394	0.0034461098309482023	-0.11229749820241756	0.00302655045739502	-0.010860331715382728	-0.02412912965555335	0.002137484607623735	0.003758545847806257	0.005955969865585834	0.001052416368164725	0.0011443319794308777