1.0556728222296021	-0.11701371761488229	0.21682797936332565	2.0037486368568027	-0.25749271890111963	-0.6699606713560337	0.7858042138514891	1.1155485775778118	0.6604912706735179	1.2821092476912659	0.39530060456760596	0.19854628219781528	-2.203792768942973	-0.35404604468126216	0.3715007352766275	-0.6506745711225823	-0.6716148202154887	-2.8774435558251925	1.9507656527263655	0.08573450988132472	-0.42178071882827045	-0.3453454317168843	-2.451547410503264	-1.0751576464111359	2.5449523063920587	1.056255138984306	-1.3914406139009665	0.6778011597477147	0.30309242832973704	-1.2080106547490945	-0.5033179132495154	-0.24021246664270113	2.394570404619591	0.20500274647746564	-0.8432814286278695	0.330212834078906	-2.2794202839587507	1.7568427053236628	0.6589137372691771	-0.373762150635698	-0.3317726226087728	-0.18731755883595735
0.17476821270732468	-0.8111892942531278	0.6935194946751374	-1.9278883532379096	-1.3585533284359605	-0.5713669678678359	0.8285891196975189	-0.5289729630356504	-0.8490535542911148	-0.5631522573778214	0.8031191873134477	0.34087738683249325	1.8628613358786115	0.36072630020543156	3.086856012156912	-0.5590387941445388	0.42285044720069304	1.0268449044939671	0.6924043565245971	0.8175544003392246	1.1026560995301833	-0.8204215812626825	-1.075153590731441	-0.5918171497084117	-1.4658850308382882	1.8489634060696913	-1.014322621165651	-1.9727144743330474	-2.595165740709119	1.936758035839297	-0.556331917285586	0.9060980089525834	0.7012157470976571	-2.3056447726498295	-1.202682617577779	1.7773903303856167	-0.2816715263646505	-0.13827501567541492	0.6388153998383922	0.8274231936805669	0.053836850091411634	-1.675619323986603
-0.419337107352114	-0.6115385857820395	0.2789828372681939	-0.09375997073747186	-0.693964801028911	-0.05503333202540595	-1.842799902400444	-1.0929237210705023	-0.42771556964905044	0.30530648004995914	0.6551711653489327	-0.13184036766574847	-0.28437346742097364	-1.9789769043292598	1.9485310001185783	0.932580270916432	-0.332756483627154	-0.40379940593384933	-0.7759252262239008	1.228247425226665	-0.15828939429479408	-1.6430403287639668	-0.9061646792187193	0.3766135240140633	5.545873681069291	1.439838839862733	0.506397865163501	0.25313931836641934	-1.6632752768185732	0.2370168437311132	0.06616393909662106	3.4868381720607773	-0.3318593246591355	-1.2079301858677824	1.3564678878125196	-0.4201867327534933	1.9518695308939358	1.3910047367758416	-2.1351861273541153	-0.3189798061077409	-0.5698507900565983	-0.47158511128029923
0.6746790445482747	1.39348434864485	0.4272970456537871	0.8396436867340367	2.006591934116138	-0.13626156557020724	0.00777409983491983	0.3509194182155315	0.47028557193125475	-0.2992024983499106	1.0573216807859933	0.28416600529319935	-0.5309341131314065	0.71984768232802	0.026854766196591426	1.4719049152880292	-1.2246033661956897	0.0790851097414885	-1.5542427995763979	-0.15599555274645902	0.1102623274113721	1.4455948642458878	-0.6311913113991839	-0.4563314063030271	3.267282473633245	-1.2978188667210036	0.31269914700560747	-0.15762892884878196	-2.588152419147314	0.7145633846537635	-4.332296418475424	1.2274981067802764	0.03583304130989884	0.06267198316486045	0.26269131791861505	0.8816242799165346	-0.03625479067354515	1.0002870121080467	-1.80419264150037	-2.092975341025074	-0.3337179268525513	0.7294073409544878
-1.2526726415371134	-1.424139480422197	-0.320266638644326	2.68484629124793	0.5570336025074742	0.058683882777479275	-0.10511778013774166	-0.6935599054528517	-0.8929890718218167	-1.4369171356649864	1.483233959613294	-0.47376070540114457	0.8914897684616134	0.6735418406657595	0.6511252060475464	-0.5415394825212927	0.42607682728921087	3.740025151364725	-4.048432337172283	0.7896555226387166	1.835316707029194	-0.6158611745031997	-2.1263825952511453	0.9588923959453959	-0.03853466490271518	-0.6319386801644773	-1.2582063467757718	-0.7772469835206701	-1.3159978741166716	0.9816652998727324	-0.31638374648949086	-1.404676555935339	0.6397757415884153	0.8678449618891225	2.236832008356677	0.7119926937814636	1.4368173901473187	-0.6285531048760244	2.3314091042797704	-0.6203095836859007	-0.9558886572082831	-0.3232333207785906
0.19853853529022894	-0.6842628515500168	0.1781715192901306	0.4636850952268456	-1.4437069659700559	0.8800179219802149	-0.2764771599927413	0.7921450529994223	3.1126287664322025	-1.4908848587510701	0.10054141023149338	-1.048797042406224	-0.014192838370418888	-0.8293845057903664	0.13409033195188083	1.7353712236340508	-0.3052130119633389	1.0504082759039626	2.060149417712601	-0.36355563317332196	1.1795832603955705	-1.4996595529370889	-4.029669738285075	0.4584619520446562	0.25126307966008526	3.324382673756071	-0.5917331889272053	-0.8241751062835379	-1.9514688944677068	-0.5729671174658749	-4.485993462973306	0.31985555908596264	1.4470810006649981	4.677028212638317	2.00345143195075	0.30200560562784473	-0.19960010860071742	0.3737040574704931	0.06529991631059284	1.764967732617668	0.1999954567011322	-0.2559343166185633
0.92855975591339	-1.0271485115617767	1.4147832624351555	2.6119919676132777	-0.2686819347327909	-0.04935037454824907	0.9037320712916012	0.9708289039617551	-2.268964321468228	-0.7598035174288651	-0.10706821641504521	-0.9046987864835401	-1.2530877409876426	0.3203390695251956	-0.06823271845812467	-0.8497527841197177	1.539339045243481	1.838286702640757	0.5212308020529758	1.4816863753033627	0.4412959360962437	0.34017694275428717	-0.013698449344183074	1.6505669486071999	2.927876184326724	2.157004562331381	-1.5096230972996048	-0.06997955473521192	2.0704586006783616	-2.8834438149816006	-1.8885959244059964	-1.0087100644980942	0.40833165545804373	-0.7349753704846491	-2.0889892303648647	-1.7327886736680365	0.7692763357795759	-1.7257916165373115	0.8212838757536193	0.6153567823406031	0.9328897213954759	-0.013832367699108474
-1.6907109859989689	-0.5357373030339886	1.319815712968938	0.7026628567146274	0.6627502395604336	-0.4918555530827819	-0.6406682405746567	-0.22820459047193314	1.6943945482347265	-0.5305657121060872	-0.2522115741231822	0.8848152553345012	0.2971238760398063	-0.19433860796483313	0.01487278947035378	0.7778526485601708	0.17482465176180229	1.6910157897301041	-1.5183265109044297	0.833216774559289	0.4195262812540955	-0.516305561207412	0.9719930115729544	-1.9484388717897472	1.3836607407990684	-1.1333191256000053	0.4115437888776479	-1.104756787015038	-1.9499594698906197	0.07349734951432557	-2.0409396830691	0.19311493355197967	0.14596983962042448	-1.024532842382373	-1.331023897568596	2.8009526295341702	-0.3258896187089211	-1.1424157015535241	0.009003219125457877	0.36762912314228646	0.9522828227171803	-2.0853455119663766
-0.1997741380345502	0.3837384160174152	1.669145113624206	-0.6845546000891093	-0.9788052631727391	0.019924182954355274	2.106491850311569	0.6482606562877762	-0.33154465215355855	1.1422696063140403	-0.25838678839806295	-0.2591997605339905	0.016448644214916493	-0.742300839542591	-0.11364464629927291	0.222648499160185	1.096547464658136	1.5459579923322264	0.8245856761879239	0.8281063353123331	-0.10223397294994681	0.17519394718744025	1.2462318703493886	0.40030317324169384	-1.101913396204548	0.40599994786550603	0.46431640135868285	0.39689421468474156	-2.317031637632389	-0.8378588228352702	1.3059376044729263	1.1252599567554957	0.2769717570804745	0.9730411207057907	-4.130026294081787	1.51118563334867	-1.1448845241362868	-1.2356060775344184	-0.4899407485160777	1.6963033607142504	1.1713368523464738	2.180986611162321
0.7358397410533525	-3.2899145069388136	0.8663501783347984	-0.39149485633244746	0.129747707419104	0.27777239010681065	2.1705442134756345	0.6853822301615028	-1.6346187000283638	0.5620268995727468	-1.8440441879869438	0.5920749825658271	1.2641892196042506	0.17549808688944452	-0.010247611762233367	-3.3101117651154457	1.3429592986221142	-3.531043045022367	0.45581581791769576	-1.0491624300007543	-1.3528875975456478	0.3986507517233496	-0.8354409001985461	-0.14440981207957723	-4.184234112868217	0.06424729065878565	0.9443941550514071	0.3199715808343786	0.9540845461923497	-1.685878553780983	0.10077459330514615	-0.5898512850952226	0.29726691283434825	0.4913878221418553	-0.49524523028416584	1.3717962622935087	2.082062062861064	1.0716410956999882	-0.014205466929731165	-0.06309832410895734	1.2754730030714403	0.836529003445032
-0.10358423738660069	1.384854061196262	-0.31550231105607907	-0.9097499005906804	-0.027800717333683472	-0.16529819600389628	2.189384611330674	-0.4522278269123259	-1.1390161194937103	1.7772571438302789	-0.8800960838450754	0.43303347956331373	-0.317960523690737	1.06888168310539	-3.207319537252177	-0.7117221821933939	0.6355901446904564	-0.010294125801438587	1.6934659895417739	-0.7644793839614927	0.9900611443101761	-1.200241427257327	0.40532031708652305	0.9271239552370802	5.188343763687313	1.1298107298361155	0.695106910287204	0.6409966523773825	-1.0145060265913535	3.691372921992196	1.6751660430815631	-2.083039566435202	1.0962099554537448	0.3842916656698651	-2.5148956691981503	0.2463713788173884	0.8291232465291941	0.03170605127487612	-0.07280735550235422	-0.274853092962441	-0.8575647892540896	0.2951413656556272
-0.025352463575357757	0.05517323727450658	-0.13644989230845714	2.0123624482714453	0.7536741458378831	-0.13664358186401376	1.0609667565233842	-1.057337875082403	2.858779974974629	0.20955211829151005	-0.007323791624652189	0.0035282245006751835	0.19605919066285896	0.4806793549477251	-1.3053952446900523	0.664736261408587	0.6371287447541742	-0.2310121328403101	1.140034732670342	-0.5733686905555548	0.5054982205746333	-2.048650566337069	0.5382411993210755	0.6810829793646239	1.11752011643228	0.20537290545785045	-0.1281390769496356	0.27755626006407014	-1.1901879002173255	2.3215214205746624	0.65603488769775	1.0080495778833332	0.8926753987472676	0.8025054321064983	1.1109103038919972	-0.15659869664293738	0.5536197347230704	0.7211467732911685	1.1795477088150423	0.45136417956024544	0.8764046830993331	0.5979140683892423
-0.31460763066575814	-1.4390413296294327	-0.47455169500181843	0.6103175294967983	-0.6118423435217739	-0.12412866756733346	1.0458982890540014	0.2373259298244004	-1.480633692447999	1.2034924202833144	0.9311567682963164	0.3301708850726429	-0.6819343050045683	0.8809497873455312	-0.7649998981912924	-1.0859713249858853	-0.2934523328495448	0.1662765437724144	-1.8213232207618408	0.7359327329279158	-0.7916446468747813	2.974131802161847	-1.2908459484961203	0.20748363775798256	-0.8867692095344768	1.3824928301938315	-0.28572702032997926	0.6246886384385569	0.8104757650332186	-0.3990290549641818	-1.8352965410530244	0.7964088792122274	1.103815356015897	0.07177884031211423	0.8713341637106254	0.2548640555768596	-0.08650262865152172	-0.932319389055555	-1.037877551681785	0.4292802977479176	-0.2479457285092217	0.12364996513063835
-0.2920662496341107	-0.31260525927609645	0.00221141927355561	0.1833673350615927	-0.3433437986892512	0.6987208159690055	2.513090118325413	1.1940851252990932	1.0407051287307767	0.4093159036433212	0.6717528959512482	-0.03228523837976688	-0.41983234917703455	1.1732124228066898	-0.2989683069739851	0.12128449592661628	0.06004831401543451	-1.6927577496186834	-0.2900277554676521	0.8997611309421273	-1.0013136758496919	-1.2516651411610507	0.3669883877944291	-0.3574871999091553	1.080692440736181	-4.220124934300709	0.10775684611635082	1.2932975002066875	-0.8697072255164783	-1.5532711840127185	-0.006874152588795491	0.8756709640827816	-1.216590634849584	2.5871697472212665	-2.727026089201154	-0.2970573598066627	1.6073783099846197	0.5733376033298714	1.5874682797188353	0.4429143522645923	-1.2957112456762045	1.1130203039470123
1.251898604901455	-1.3198778385269725	1.4167277968430056	1.6669820853292003	0.9369958107143522	0.14708826035083492	-0.6644033270806486	0.07660347336055792	-0.8511399372738845	-1.526025088093609	0.18901602526723157	0.6602553745363587	0.7687907635098574	-1.1111259328819258	-1.5565322353256525	-0.3365919338471501	-0.6487401822923258	0.11296395804608629	-1.2991915185020626	0.9815761761374521	0.7762353160751712	-0.9129953151492254	-0.3210615726622206	-4.094507859945191	2.264646151567656	-2.597056696002862	-0.06478356316671789	-1.6661786508324756	-0.08539162821131212	-1.35200916695066	4.17429581195518	-0.8197457105538666	-1.6053453476411013	0.29139655839361095	2.4710045923701167	-0.6346951846618719	0.2510513847027275	1.1086883728547559	-0.47753569095314297	0.465405646002513	0.9757660214793388	0.7875476189065865
0.2933304045870027	-0.1858396513268981	-1.9511138120010558	-3.7199151570582547	0.11641012073111584	-0.54939268254673	3.1246575313661897	1.4177753986403772	-1.0201491865266195	1.2590275047992394	1.4712072945382264	1.4651641640298945	1.4721410066966119	1.9844425609410308	0.021584152848523223	-2.6189708219276464	0.9497405270632817	3.5616411460602686	0.11944901482329452	-1.11862535670793	0.7140627177544392	0.17204010776680242	2.0837140446979308	0.17026722026990637	-2.4325896811798278	0.035812510230732536	0.8462365959374708	-0.8357345352817844	0.5692716306527659	-2.6021400414651823	-0.9449337515810727	1.3344256723759658	-1.840782082035682	0.5376717095078838	0.6932788271650928	0.9722784888207403	2.6553696192376544	-2.244309131189177	1.7393410489240728	-2.540021139334708	-0.09869236815828059	-0.09804192826580616
0.7946419967976521	-1.3178940740851826	-0.27291150123424307	-1.900499500492288	-0.05138602990505463	-1.004074360437722	0.5494506564101765	1.5112900093995565	1.9823523774334184	-3.262351593107834	1.1540118008264033	1.4885411269438775	-0.3100445846244489	0.24143591381282917	2.5222924958923802	2.9743571510918403	-3.882320491457655	-1.7194283915691035	-1.3493375155642617	-1.2432910418932173	0.29356708166627454	1.5566680431709623	-0.6493093518653065	-3.040543466578571	1.539228952023522	0.263206433854349	-0.7241569891321099	-0.27667688542581853	1.9725485098577513	1.4714854329413705	0.17197948505414754	2.1073282421544386	1.4516461487057313	-0.08561635717580286	1.1858045017987464	-0.8392904667429328	-1.7064977157454195	-1.4667004615401906	-0.4822141919988624	0.27801525992120846	0.38929965838628966	0.08333944796366982
0.05808794892898235	-1.2109729810436662	0.8300285968212628	2.979115203446209	1.1902131101633056	1.141364918906289	-0.5400433530823826	-0.9234958515357585	-1.4747363813366807	2.025886543700452	0.9916426446325984	-0.14615053987045928	0.2803134990424591	0.6046855038601282	-0.13627488073322772	-2.3826333139918296	0.17803856878943752	0.7160168396996097	0.42060927505114637	0.39095626705718695	-0.5312795864644444	-0.9184310973765448	-5.092371999092811	1.742162187085252	2.4993108641659814	3.915174162716317	-1.0460042074951683	1.4031196983423486	0.7300324836092833	1.159833322789821	2.3921487915036352	1.1894657051286537	-0.03324227820048916	1.0534906713496548	-1.1104198134147443	-0.08302412864290477	-1.162201815040311	0.09225560628106223	-1.9251194059751264	2.3355638848330553	0.5981045456999285	0.8550403852397865
0.5280977099255297	2.1805888359741554	-0.031707142021700156	-0.7643659190932734	-1.9371661155366091	0.254826332910077	-3.5325080672965803	-1.1532929520350212	-0.3532513737587826	-1.920194154369427	-1.4700866701049968	-0.11346757690854001	0.14118484125304956	-3.8852624404087712	-0.6797015371548244	-0.7132625794832199	1.9901069735052157	0.4174832187231985	0.6483193599812793	0.5695620530464849	0.7419647920867429	1.699494089680924	-0.47323403723249247	0.45677597997723285	-0.031310644821718234	0.15364451693425726	0.7872336954285949	-0.4767602108994101	0.19497179406341675	1.0446863215244835	-0.6943704197045186	-0.9099952481830973	0.35903950864690853	-0.002266406540803596	-0.5118554696278789	-0.11254731422203718	-3.264788246516511	-0.563306809923452	2.3108197907065677	-0.30431885890171895	0.2589288425733725	-0.5175978704818232
-1.1093537871885597	0.4500034225067843	1.6210885531492232	-1.24154064338221	0.05706326564040402	0.5385811117184943	-0.8491171540299072	0.2634854121719885	0.5044107048037085	1.5546892152547787	-0.6128607125980156	-0.873973075849739	-0.25249144119847106	-1.177993013054321	-0.9674903753212879	-0.33922612206565467	-0.37853514321788323	1.4576627894623018	0.5002329017231238	0.06433040844398916	0.7103935687191446	-0.661908220812147	-1.6025191665716592	1.2102202928897623	2.2498871427788645	1.9935220376885858	0.21165340556840026	-0.46430619678755347	1.8406981062500096	1.7529017204298751	-0.6408567764953754	0.9361658950646012	0.8783923213907685	1.2315990689667071	-1.8976275291110474	-0.7613347442557453	-0.033681732380779615	-0.4178297139665897	0.016978129518429544	-0.1965417240849269	-0.4621432356684183	-1.0308907781410646
0.05742100606247075	-1.6136459155577672	-1.652783940379089	-3.0918716970318685	0.3310730933820555	0.08821605763221586	0.26576478322630503	-1.1358860272799673	-0.15908303486357805	-1.0600179990143919	1.174415031312742	0.5455589815275279	-0.8033868797596418	-0.8279447774077576	2.4805287191289787	-1.7326171367265635	-1.1706314940128029	-1.0326338958477153	0.5712097346287514	-0.7048946205739094	-1.4037861897938984	-0.6309781699196029	1.2575694588974098	0.8894200639556541	-2.997769725254565	-0.4577218107432913	0.2457362789633778	1.561652440405728	0.0035181228225774617	-0.9582649195856879	-0.6917320315904547	-2.0545699694960633	-0.5344193971446703	4.701917145008775	2.302431415810569	-0.9353265977100159	-1.436136389911459	-1.1139316354767175	5.751981901626047	-2.069375098993175	0.35601941089682587	-1.0378505570543712