-4.2599047318795815	-3.9657029399572	2.2962837023799754	-0.15837026230208678	1.2727220979918925	-2.069202433333962	-4.2544862142479465	-2.660393280806329	1.9760340497770021	-3.4085411704851536	-0.8955722619229252	-0.35642406888665334	1.535149900725011	-6.002316015946508	3.209953866329044	3.0249619878013863	-2.2542160072259163	8.465884685292833	-2.697866047008707	0.1810098852997522	-5.362778200854844
6.072601493570671	-3.3246507580021034	-1.7401567829655669	-3.5443373250231534	6.091175353334346	-2.3715124252159043	-4.332609825219125	-1.9041278990690285	2.4952077532251487	-3.617368592121097	-4.354571354662465	0.6451838687591228	1.3569678899516915	-6.1743703719827	-4.390204874082744	-0.5407004873561992	-3.6339537752152595	-2.7764444752730038	1.0034388841156472	-1.039896842283849	-1.623055035664383
-3.208503040926677	-6.058041990396858	-1.6649112554481535	-1.4020337055385068	-8.792968206118196	-2.4184408471396184	0.09970616874933996	-1.0158363370272456	2.3374423580227703	5.731559634021632	-0.7250074705307787	4.836339545376047	1.0387933327986232	-1.6306837637667733	-5.096026524190359	-0.465562578037345	-3.0917782850788993	-4.507534488872743	1.423406157303169	-2.9360447919458705	3.953584232191652
-3.4472571099083553	1.7698402368226644	-2.0453536038286995	-4.698303042854299	-6.071571524128503	4.630128831439524	-5.30131928356305	-2.7407209134553954	2.3111936758047373	-4.181429825126632	0.25102083350473475	-8.58430013716434	1.4996686583387453	3.6972781604956286	-2.9163300304864235	-0.5911854063461793	1.1246878065969523	-1.9726097513550982	-2.2475174330521646	-3.4287195764239207	-5.494453078735976
-2.5636684597021535	-1.972636240351794	1.2363989965025324	-2.2221386697374084	-4.024699887880637	-1.7366640849059995	-3.0646169352162826	1.600107024977069	2.1697565887200416	-3.8054921198115195	-0.291321439995097	3.684464498985225	1.388795853976039	-5.654579609024164	-4.9111028202065565	-2.597055739390397	-1.0830717585862177	-2.9136021777098993	-3.8011502923901532	2.9148665607982354	3.7252575117861366
-2.0908707437237797	-4.037348142594873	-0.5067454068603068	-0.6031347236276624	4.950411436526505	-1.8916245482673624	-4.362460107885271	2.4425531178859603	2.4979671189958115	-3.8145561483588284	-1.275770341135895	3.8356590639118053	1.3174249098936155	-1.84531344377669	-5.321521621611879	-1.568408860525935	-3.692959519063756	-0.7829053575040869	-2.177570919991157	-0.3610094126758339	1.1026410736531338
-3.6835968254724736	-6.419524056366578	1.0736666198676705	-0.4423514448113484	-1.9469337507706121	3.0655306261386697	-4.066008607223603	4.208918274768374	2.33603255921206	8.453656854755627	-1.9109718753031681	-0.7578085682649941	1.2032220418670736	-1.9905228363247016	-5.76267705938897	-2.331135940917007	-6.3261383939000755	-3.3132517555884777	2.960882732271741	-2.195553182584498	-2.5533867431911332