-2.5500328072136846E-05	-2.8241301970214035E-05	-2.0764595068504966E-05	-0.00018495534987062742	3.73312524494413E-05	-5.93917910383381E-06	7.155126198363671E-06	1.5825715156604595E-05	6.870876891086122E-05	-1.2071294829735048E-05	4.392780804460434E-06	-2.3963670493644544E-05	4.471749493404266E-05	7.453461066736054E-05	2.0292241274960233E-06	3.639560391933851E-05	-4.747712401910407E-06	3.4306097342182715E-05	1.7796836394762262E-06	3.4971471006978294E-05	-3.027661275899657E-05
6.16888232496744E-06	4.302643870453215E-05	3.271684140568999E-05	-6.887073408800818E-05	3.1224595579042116E-05	-7.746867386434533E-06	-1.3587934078452245E-05	-2.4971812250208155E-05	7.729056386706266E-05	2.593540132980882E-05	4.160103262828152E-06	5.75612423139225E-06	-1.9939651044526497E-05	-4.96243452684693E-06	7.021100973793878E-06	-4.282655919244421E-06	-2.110300007450964E-06	3.2267249987494025E-05	2.4317982655220053E-05	3.7656104585951004E-05	-7.914285614225764E-06
-8.831736287569718E-05	-1.2617000570135872E-05	-5.514997146758447E-06	-0.0010682028720038182	-2.362691423988475E-05	-0.00011560451682870584	5.9142387052831304E-05	2.1855313014808748E-05	3.230081053303354E-05	8.148917775819073E-06	1.6173769342877805E-05	7.447908274954456E-05	-8.104580061428946E-05	0.00020611868396197192	2.6510829562120395E-05	9.71621662679484E-05	6.494614570654608E-05	9.529018721763585E-05	4.7252598497565595E-06	-0.000133287620522778	-5.089438572663398E-05
2.5328243304653472E-05	-8.848068507858068E-06	-4.577602954252248E-06	-0.00011402407348714323	3.6357898465710086E-05	-5.186884458249282E-05	3.693504876988942E-05	1.612365049622355E-05	7.663106354344568E-05	-1.4801997091099819E-06	-5.0001777276994536E-05	-9.806595759452301E-05	3.9700317744179413E-05	7.852012119747045E-07	-7.425379363027675E-06	-0.00024786269827454594	2.3515198502365774E-05	2.052587294542527E-05	2.0788056506356026E-05	2.1010173968715644E-05	0.00011632173457243376
-1.5058281915728594E-05	9.028188428082886E-06	6.318533547549924E-06	0.0001365928716451442	4.606247446633564E-05	2.3945095115564217E-05	1.731075501910641E-05	-3.952519128792742E-06	0.00015859939513371572	6.210688031964217E-06	-1.4361380034994737E-06	4.36581630120914E-05	-2.4524965860107657E-06	7.792988270674469E-05	-1.0616888277672728E-05	7.201707975631119E-05	8.039091083673804E-05	6.300962648324982E-05	-5.28213622706175E-06	1.6518845894355243E-05	-1.1714061527804656E-05
2.5945725354748413E-05	-2.0290005407107566E-05	-1.3275459433955785E-05	-8.293157463209142E-05	-4.663024547846574E-06	3.184149033268609E-05	8.205751478676819E-06	-8.734289592688718E-06	-3.296291136068014E-05	-7.694810514009334E-06	-1.6167275507895384E-05	3.366451934449357E-05	1.4488275643511082E-05	-5.1107708891693824E-05	9.393658529298196E-07	6.9573206573095805E-06	7.924067464800091E-06	-1.6679128274390907E-05	1.9037764064474146E-05	-2.5870307334298623E-05	6.132436653805472E-05
1.7862328370170945E-05	-1.7281772437869845E-05	-1.1366456194444829E-05	0.00011902761082873815	1.117248964690795E-06	3.315383489914943E-05	1.0592303506190811E-05	-1.713976886755224E-05	-1.3824024675794362E-05	-1.8818924344012405E-05	-4.2616119392104E-05	3.3521029551628254E-05	3.149777553715927E-05	1.888949258797197E-05	6.779445244738362E-07	2.5394037129260595E-05	-5.578908548999856E-07	5.290289214276014E-06	-4.321463480836677E-06	-4.799134337835568E-05	4.013507571829224E-05