2.6265081083527947E-06	1.097215969074729E-05	-1.2795261495976132E-06	-5.128330977799704E-06	9.82637945490099E-06	3.3880254653884027E-06	-1.3952716546040415E-06	1.0848407721194145E-05	0.00011291570835994332	-2.3983526465673407E-06	-5.779314188089874E-06	3.9055088210600036E-05	9.447249226060724E-05	3.086611604571617E-05	3.6014152784018216E-05	2.58591613512944E-06	-1.3061524067414319E-06	1.888483356636237E-06	-4.529251461755642E-06	-5.580729885042398E-06	3.4578954779187012E-06
2.8489369691744975E-05	-5.5196017943342705E-06	4.525327928769201E-06	2.4869768553513638E-05	7.167415210064328E-06	1.3668736454235152E-05	2.297179317715005E-05	7.47895553376783E-06	0.0001375131753168179	1.086339927461518E-05	6.672729455849804E-06	4.2582785083112656E-05	6.270715457409329E-05	7.047984629518313E-05	5.3430283942286785E-05	4.8301909653074764E-06	-1.3919841056262113E-06	2.9396123966302343E-06	-9.74015095404708E-06	2.1240554966829632E-05	6.864005896158333E-06
-3.3590296046889196E-06	-2.0225404871622153E-05	5.5091322807241093E-05	6.6314025413781896E-06	2.034091765083571E-05	3.394743166354003E-05	3.8507349039787256E-05	-4.8648226670895125E-06	0.00011915325958058717	-2.464296451993049E-06	-5.513912236519797E-06	1.9796889327328927E-05	2.240170423987312E-05	2.0408010169759185E-05	3.476915114102106E-05	2.6834541067388218E-05	-2.682351498287276E-06	2.1227584119143427E-06	1.1680068123217753E-05	9.372612012453688E-06	4.936659774066333E-06
-1.6584870604199412E-05	2.6909229523981384E-05	5.76084810290582E-06	-1.1281880794473551E-05	-2.3365691162151733E-05	-4.522113567148007E-06	-9.935083813303232E-06	2.2735297080456835E-05	-3.056843947582224E-05	3.008927096407578E-06	3.3465643007261876E-07	-6.750755819717185E-06	-2.6439056790136032E-05	2.3871677662515017E-05	1.2286601659098476E-05	-5.95153465211153E-06	4.442695668466297E-06	-2.604327094131312E-06	-1.4200398958256777E-05	1.1187944368768884E-05	-1.1100534863822961E-05
2.79387970401727E-07	-5.07270310893958E-06	-5.285963490713143E-06	-2.783927612359903E-05	-8.42799559214457E-06	-6.455656844891696E-06	1.3988421191404225E-05	-1.5869422178879953E-05	-4.4347695629489776E-05	1.1055353656495993E-05	-2.86888488074556E-06	-7.894701260013562E-05	-2.4561514487499452E-05	-3.408706979834392E-06	3.6198046014945653E-06	1.2670071699376828E-06	-1.968959917989536E-06	-4.222400284591811E-06	-4.004299430865238E-06	-4.251670457898647E-05	-2.31253176321286E-06
-2.221896990491435E-06	2.0434434864779387E-05	5.267531889175787E-06	9.818165332564093E-06	1.4387405858679638E-05	2.1647896300750893E-06	7.879378453700617E-06	1.3841985185553524E-05	0.00011306911305869057	8.011284509798443E-06	1.536781624379864E-05	4.374798712836895E-05	7.448732192002313E-05	4.690461930850993E-05	3.9853759942419945E-05	3.970686607272704E-06	2.3863273660303097E-06	1.6507909143970193E-05	-4.44669196732673E-06	-3.069953089072105E-06	4.171447181313675E-06
-4.065099549673017E-06	1.5677520310832277E-05	9.445740275189061E-06	1.1764064199718285E-05	1.2247311060003845E-05	-2.7300921385365755E-06	1.3877950334184762E-05	1.3877443401196081E-05	5.405625557245107E-05	7.637524761339181E-06	1.800438948862634E-05	3.1506698226210214E-05	-1.326405067680948E-05	6.332290344709496E-05	3.640523417777842E-05	-3.9053898830082575E-07	2.8985809169968564E-06	-9.873090517955595E-06	-2.1132347204887872E-06	-4.785884512213409E-06	1.0535960814540212E-05