1.3711356342983957E-05	9.220029219131832E-06	2.4649515379745186E-06	-3.214603532848951E-06	-1.0081467309226017E-06	-3.513100448663126E-07	3.5763741526733946E-06	1.0210525614936726E-05	3.451584976516906E-06	-2.3755107973056693E-06	3.817074460627316E-06	-5.452153906138731E-06	-1.4568648306953252E-06	2.2787426556931467E-06	-3.3183605066512997E-06	5.314372252952803E-06	-1.2978069482774572E-05	4.5489282997082416E-06	6.241499039059361E-06	3.3178578367896155E-06	-1.106584699272281E-05	-1.1248580455070763E-05	-5.342410468921663E-06	8.690419401090827E-06	-3.1174895558533646E-06	-3.5055151039184823E-06	-1.3321274243828935E-06	1.589786864885757E-05	3.315839612783132E-06	1.0332980547343405E-05	-2.56940629206003E-07	-9.071539339798698E-06	5.69463911090374E-07	-1.1667371642756122E-05	-4.408024313643183E-06	6.342882704510806E-06	-4.692252376004868E-06	-7.232952859642551E-06	4.052999457036285E-06	-4.118647931089649E-06	2.230933560700303E-06	-1.2371965307246005E-05
7.836603463859976E-06	1.0003822533752639E-05	-1.9464527481566143E-06	1.7952109201730874E-06	-7.603943839094734E-06	-1.023996586121884E-05	-3.3118509799755377E-06	-1.4981876010624913E-06	1.141597482839645E-05	4.322461814088794E-06	-9.943106896537498E-07	-4.393692800770602E-06	1.803379654901323E-05	-7.923618507524699E-06	-4.780009254705242E-06	2.818231595985516E-06	-1.0509486190827075E-05	-1.0026398155965527E-05	3.827167737613425E-06	1.0473674998166054E-05	1.708200623756885E-05	-1.7063321053286677E-05	-8.728486659409315E-06	2.545601223046702E-06	1.7816752662706544E-05	1.5809523255425292E-06	1.758196951969245E-05	3.563263787306185E-06	-6.002702488363551E-06	1.3916314922485154E-05	1.1783701563328635E-05	-2.2216399485325112E-05	-1.716722750201753E-05	-2.827227730349829E-05	-1.6961476936608326E-05	1.8463217937578804E-06	-1.6198113992086447E-05	3.653114697536526E-05	1.8836069214177027E-05	7.439370197552476E-06	-2.6126929775747042E-05	9.144369617185319E-07
-5.2557966778420976E-06	-3.8483882770255906E-06	5.34848470153319E-06	8.574667193207519E-07	-1.3928430879782559E-06	-8.942894793546295E-06	2.9148995519904094E-06	-4.67616541326649E-06	1.661638036837127E-05	2.537349656720724E-06	-1.7101513447963112E-08	5.763128918384992E-06	2.3636208635079145E-05	-3.552465317278291E-06	-1.8442603830693763E-05	-2.974197548931742E-06	-9.163766890743151E-06	3.6878024264436536E-07	-1.0645203497551579E-05	1.1176040471183167E-05	-4.178327655694312E-06	-4.055740367279463E-07	9.12588615296901E-06	6.81784059112157E-06	2.2365944668914043E-07	4.287166322310625E-06	1.745836460410528E-05	1.5664910652558215E-05	-2.628960991071213E-06	2.3106524328141884E-06	1.4633730245399042E-05	-2.183682996533758E-05	3.346048358539871E-06	-3.0937445900576545E-05	-2.294056477761759E-05	2.9320563683269903E-06	-1.1586142612083295E-05	7.769955552011794E-06	6.70939085119848E-07	3.6023387324859857E-06	-3.7303728430112204E-06	9.093357820745377E-06
1.897407077779759E-06	6.721364615687629E-06	-3.2291987026748575E-06	-1.0843143412037891E-06	2.7111245061751164E-06	1.276939326188385E-06	-1.813664882312124E-06	1.7557527290825723E-06	-5.880746699854175E-06	-1.235582530644299E-06	1.0337831000301792E-06	-6.415882459238208E-07	-4.86345874808938E-06	5.4201167313864315E-06	1.3276085464803347E-06	-2.4198707529429833E-06	5.7846640918164095E-06	1.3628249754547959E-06	2.136106576513158E-06	-1.1175262051439415E-05	1.7096368859997466E-06	7.909756886115825E-06	2.0011117233982356E-06	-6.364603703090057E-06	-1.8691793599088556E-06	-1.256583689965635E-05	-1.3467220066691725E-05	-8.944751666004665E-06	1.8605628659693678E-05	1.0834639271007473E-05	-1.5083907525338274E-05	2.714050725562019E-06	-6.563517525176581E-06	2.84478349929084E-05	-4.585399295788231E-06	-1.080576136212956E-05	2.4977860719580863E-05	-2.8525730461285397E-05	-1.0850048813706366E-05	-2.675905741283238E-05	3.854219103781067E-05	1.1558297868021622E-05
-4.9928361385852315E-08	-3.6413900781888928E-06	-5.547597751816796E-07	1.6046538837438444E-06	2.201131366573982E-06	4.9961839818402075E-08	9.120444535912431E-07	-1.8729303124008272E-06	-6.277701481179672E-06	-2.9041410421747983E-06	-3.471704395069958E-06	4.573747080763714E-06	2.6223893264340084E-06	-4.999633956312227E-06	1.5234210216022582E-06	-9.101040099726717E-06	2.5628176228466052E-06	5.928200631584799E-06	-4.667462446170369E-06	4.5116096590637076E-07	5.537654086050695E-07	-2.379317024928782E-07	4.7327348492490236E-06	-3.0555050899197617E-06	-5.62998022523466E-06	-1.302312931018184E-07	-1.354053423395725E-06	6.402689477055722E-06	1.411647336525958E-06	-3.065515351052002E-06	9.24288862907537E-06	-1.4925480926872292E-06	7.2412365905525105E-06	1.5392882170657562E-06	9.002569537391042E-07	-9.948836051687998E-07	2.2836898160756555E-06	-8.061833836003218E-06	-8.276171760781249E-06	5.474203601962265E-06	1.428003651403136E-06	6.199413603453522E-06
-1.2371920753839574E-06	-4.9069999725509095E-06	-2.5242493805740748E-06	-2.7524247583698454E-06	1.908098583337603E-06	8.214784799677989E-06	-2.7022647127123457E-06	5.000410973121282E-06	-1.2477903787680142E-05	-6.915187305604162E-06	1.029905815456617E-06	1.4838768691282511E-08	-8.757910596720085E-06	2.422273486381915E-06	9.458063327239977E-06	1.0509739363381312E-05	1.136139459679346E-05	-4.522272381970296E-07	-7.251549988731015E-06	-1.8048373338658105E-05	-6.98124862548365E-06	1.60158417089097E-05	-5.570722058873738E-06	-1.2539716367225652E-05	-8.99900640215423E-06	2.030417562698566E-06	-2.184033842513627E-05	-3.502986853932795E-06	1.0405343495420698E-05	8.48586220191002E-06	-1.69271335752724E-05	1.3407823627675605E-05	2.440223173019657E-06	2.693447206713539E-05	9.752499818106346E-06	-4.644929799708319E-06	1.0207173187329065E-05	-2.560737553592465E-05	-1.9863485755058003E-06	-1.5795426532191965E-05	3.2729009271962766E-05	1.0093340078341911E-05
1.1460915263024482E-05	5.994119580717876E-07	1.8118455393607258E-06	-2.4325540299974146E-06	-1.0927950435639192E-06	8.9276463954964E-08	-2.8324417472343386E-06	-1.2343664391545461E-06	2.2479686908828163E-06	2.019246516373162E-06	-4.3704385300583685E-07	-4.07641882102417E-06	2.20824681650158E-06	6.878643484277591E-07	6.5574268073145555E-06	-2.140519673899879E-06	-4.6560116668240256E-06	-3.3954457526074464E-06	4.4144179268881586E-06	-1.7122520737750263E-06	-6.041601694479844E-07	-1.4471587467924293E-06	-2.7546652249844138E-06	4.183576293130321E-06	-2.259060567861013E-06	4.038352080765933E-07	-1.0803631359048572E-05	1.4076672390618341E-05	1.2092045432121172E-06	1.0820745648279903E-05	-7.116072979543888E-06	-6.332065366532509E-06	-2.8410472955800796E-06	8.252222678749587E-06	-1.837801382631102E-06	-8.073606104886721E-06	1.2209509787156954E-05	-8.395665591908628E-06	-1.7528877887785939E-06	-1.7494356811011895E-05	1.695910902637869E-05	-4.489467416308064E-06
2.304764444285049E-06	3.7447845250075282E-06	2.5255781361725443E-06	-3.5292075043570766E-06	-3.86779919820871E-08	3.0833428857851794E-06	9.774427761678437E-07	2.207522207729377E-06	1.136658657891879E-06	-3.956523827912139E-06	3.1217365164653286E-06	-4.9529537607454235E-06	-4.4049900689276113E-07	1.2177620306490116E-07	6.3650039701947E-06	4.3849555824556685E-06	-2.836698804415582E-06	-3.363485181781629E-06	2.976849369708385E-06	-3.848284920863893E-06	-3.1372794471794144E-06	2.0952817285265706E-06	-6.900244755074863E-06	-1.6789287601613308E-06	-2.5740424202486757E-06	1.552283372819355E-06	-1.2615021817840934E-05	7.0773441545130545E-06	-1.1571621679392835E-06	4.865861142246939E-06	-5.912683228018602E-06	-5.383639532507541E-06	-1.515878710064966E-06	1.2193742180540952E-05	2.4384736642258404E-06	1.507561274305807E-06	2.872787909526336E-06	-1.1134216416336236E-05	6.069219701078057E-06	-1.272756616142656E-05	1.6342964567033885E-05	-2.262940553996187E-06
2.8721822735158233E-07	-2.9827900496672844E-06	-8.688915836731435E-07	1.8743370150276731E-06	-1.9769885908929656E-07	-4.7748577637963685E-06	-6.35821046858953E-07	-5.716861924378225E-06	-7.2915531636207305E-06	-8.214570012977687E-07	-2.1497056866176865E-06	3.494577527542327E-06	5.181369635095164E-06	2.5394706785564762E-06	5.42174817099897E-07	-2.93699022747005E-06	2.673965910337725E-06	1.6600392566326297E-06	-5.458912086575704E-06	6.298475871126822E-06	-1.91328113839328E-06	-3.1855569523175532E-06	1.136416880375442E-06	2.837261810654383E-06	3.117645401046753E-07	-3.5077435504630933E-06	2.1047917887273082E-06	1.0235873357064306E-07	-2.576170475513124E-06	-1.5874711296912636E-06	3.1790514462380663E-06	9.792765704642485E-06	7.844594499766803E-06	-2.4151767452268337E-06	1.9814128597589288E-06	4.081343482540192E-06	-9.043667242710514E-06	-2.045331117177455E-06	-5.531695021369863E-06	9.778667210369806E-06	-4.9756825079909E-07	-1.562856878811745E-06
-7.472782473110458E-05	-2.231486322422267E-05	-2.3419407833396346E-06	2.1655173074862793E-05	-1.048828559723881E-05	-1.3771805729978928E-05	9.487363809658068E-06	-4.2064686093799526E-05	4.017787804626445E-05	1.2783798054127137E-05	-2.996261129415066E-06	3.753895672936155E-05	1.708642351285226E-05	2.1997275357891754E-06	-4.076271155551215E-05	-2.0476604547529E-05	1.3862617524689804E-05	-1.1632902260754386E-05	-1.7144568650266175E-05	1.7026411618550045E-06	4.273669440275212E-05	3.8108438006789016E-06	4.327516770234843E-05	-1.985681027704324E-06	3.3034682385494847E-05	-3.244865420745496E-06	5.379273670714101E-05	-5.197402865265047E-05	-1.5794860632717468E-05	-5.5761217140107846E-05	2.1232568513550926E-05	9.704589378710902E-06	3.583814437312051E-05	-2.5226205965145484E-05	-4.6723420727333804E-05	-1.9633393117408092E-05	-2.618365611323837E-05	8.411441970738811E-05	-7.720593769156338E-06	6.740159774179188E-05	-7.527544143502937E-05	3.68097941419601E-05
-1.1096991013193574E-06	-4.550387377100866E-06	-5.484928850117385E-07	-4.188971077704288E-06	4.447530996836545E-06	-1.8903899401886578E-06	-1.3727498038589642E-06	-6.517082243437538E-06	-6.013624700023609E-06	1.2268201374529978E-06	2.910906742578128E-06	2.6089368631486082E-06	-1.4197216192560838E-06	9.97237706748028E-07	-1.6606371160497888E-06	-5.76798206948047E-07	-2.7398782739746385E-06	-2.2704087877452434E-06	-1.2860027316031915E-05	-5.3397164043201985E-06	-3.346649425035825E-06	1.924827198170349E-06	9.768393686315022E-06	-1.7370412290612422E-06	4.826669323564932E-06	1.2113953068520758E-05	1.4429665409334472E-05	3.332905977740731E-06	-7.403980294448442E-06	-2.032646757379789E-05	4.713102774385262E-06	5.870448126056005E-06	1.128226987200621E-05	-2.3231862867418544E-06	9.540964137213793E-07	-1.2694972972526387E-05	-1.3914581609276874E-05	1.6320813030100593E-05	2.7220488615904646E-06	2.0241035724134583E-05	-1.3825810345157601E-05	7.939612676611975E-06
-1.2925618292342681E-05	-2.3740736702858205E-05	-3.3195486380972E-06	5.665503357875105E-06	-9.29231383782278E-06	-2.0209091937611762E-05	-1.071972021372925E-06	-1.83730828128835E-05	3.470281028962054E-05	9.060419739618122E-06	-4.197227109108989E-06	9.734354347439935E-06	1.8002393925421818E-05	2.168561137312538E-06	-1.414460888345915E-05	-8.6804571401679E-06	5.615301279632877E-06	-8.475103580367852E-06	-1.3996654058134868E-05	1.7944312703672794E-05	2.6503800689873694E-05	2.9215410666896174E-07	1.2127552762210249E-05	4.2293909947152954E-07	2.1730068032253547E-05	3.848688976888016E-06	1.0928162949448393E-05	-1.8076591947175922E-05	-1.2144584480453464E-05	-1.5868916856907586E-05	-8.5922658132727E-06	7.633174205023146E-06	1.1077850705184257E-06	-4.49103499401317E-06	2.061127386883522E-07	-3.770956412173014E-06	-3.107211138455143E-06	4.290807256718262E-06	1.5923826512130624E-05	1.3220954306074488E-05	-2.155353179237836E-05	4.9018249624957836E-06
5.758505596580827E-06	2.937298433892504E-06	-2.253384932943163E-06	-4.527225495309519E-07	-2.9475398065482636E-06	-1.647341516561235E-06	-2.9411535349259524E-06	-9.151330221869934E-06	-1.553678264542716E-06	8.420783271694775E-06	-2.01349894870133E-06	-1.319705392519149E-06	2.2068340250437796E-06	1.7607583141745925E-06	6.673592148703693E-06	4.197740416849895E-06	-5.477271152717984E-06	-7.6255885741247465E-06	4.70945948085637E-08	4.6663696964465864E-07	1.9455216888353576E-05	-3.6937906126034546E-06	9.761215604396155E-06	7.760475056643041E-06	5.451781739215998E-06	-3.2077382381448217E-06	2.1106808866711032E-06	-1.265627607917385E-05	-2.0556354809238493E-06	-8.032789587220987E-07	-7.805802141064346E-06	3.7576184930924764E-06	-5.147748858801413E-06	-3.0944575781213907E-06	-5.100236093876413E-06	-1.5955351066707615E-05	4.433592210901145E-06	1.6408471374458278E-05	6.403085377176296E-07	-1.0613729139237015E-05	-2.903065023070236E-06	8.171719602589226E-06
-1.2026632309862679E-05	-3.5456159576976915E-06	-2.9920699224093275E-06	2.867109223008235E-06	-5.6511402015933834E-06	-9.79429831899833E-06	-5.275190273232914E-07	-6.551737285579508E-06	1.6998410712177723E-05	1.093334265310882E-05	1.1802983640529524E-06	3.935146857465142E-06	1.2594498386647597E-05	-4.012889112106915E-06	-1.783033160869284E-05	4.882093389824072E-06	-1.8682106489134173E-06	-5.756693525644157E-06	-4.1830360901827294E-06	5.045822341872874E-06	1.025029012878525E-05	-2.009677660262779E-06	3.713356511013341E-06	-1.854521292915192E-06	2.348504313214902E-05	1.0421958778856837E-05	1.6727175217894634E-05	1.6954710070617801E-06	-3.847644242304311E-06	-6.274732615718538E-06	-2.042072305582569E-06	-1.991748586111057E-06	-5.297067644772105E-07	-8.026775951133128E-08	-3.45859531509934E-05	-1.1547755012534145E-05	-7.317536703771897E-06	2.238972565419261E-05	1.4383283310263612E-05	6.7782569725274315E-06	-1.4556706298250979E-05	-6.902786239464256E-06
2.9503734987713272E-06	-1.940326569907238E-06	1.6390848640107538E-06	7.992432528501691E-08	-4.787021385649062E-06	-2.0934187591030086E-06	-4.122335873290347E-07	-3.7498050462828363E-07	5.502377137785727E-06	5.334718490680382E-07	2.094835177337807E-06	3.305470045748985E-08	3.5475351107095222E-06	2.864295580294773E-06	-2.85583119916587E-06	5.732082936299282E-07	-2.3042826179564684E-06	-3.2351021380256144E-06	2.7476515410817987E-06	6.045230821571142E-06	4.146983611058233E-06	-3.998304012842785E-06	3.48884527742053E-06	5.280246832597158E-06	5.343617349460686E-06	1.4802071898190376E-06	9.991816952490958E-06	-1.014981305466236E-06	-4.20761038100232E-06	-5.208225309441015E-06	2.9010018067728128E-06	4.166404017463656E-06	-1.2971701934270988E-06	-4.823805098833534E-06	-1.11866131291919E-05	-3.953039426635197E-06	-1.2241608862435442E-05	3.005430529229865E-06	5.300172302470956E-06	4.256728063318883E-06	-6.062784887055561E-06	-5.975157464010423E-06
1.0567582358219508E-06	1.0699060291269862E-06	1.75782216590625E-06	1.2208209228013257E-07	-1.9424136084297325E-06	-5.660833332569417E-07	-3.528168869345582E-06	-8.29849042533844E-06	1.4793767375741142E-06	-2.5270069179228544E-06	8.26612313350265E-07	1.5897572383056056E-06	3.66239475332835E-06	5.510036062272926E-07	2.501232737612151E-06	3.6692976417812795E-06	4.269456122378234E-06	-2.5063806590427363E-06	-2.1304224606569233E-07	1.9233792047156463E-06	-8.161089990550527E-07	4.246295117842106E-06	-2.608543782755415E-06	-1.036844220581921E-06	-2.163494615278731E-06	3.986555274338502E-06	-1.5014367446235533E-06	1.223947291941859E-06	-5.58817442270946E-06	1.3317851789734478E-05	-8.586475992586496E-06	6.723015482944423E-06	-6.086581737687597E-06	9.553177180750862E-09	7.88039388025386E-08	5.205631673717251E-07	-8.85387225292172E-06	-8.271585239207514E-07	1.8296360772359492E-06	-1.0141842768320088E-05	4.960436771947057E-06	6.416383152095107E-06
3.4539996811649303E-06	-4.4002470861251065E-06	5.733951198410989E-06	-1.425482813388747E-06	-4.238975726018876E-06	-5.808169464465267E-06	-4.0435416877255744E-07	6.254304558571702E-06	1.324033615472118E-05	1.2650570386984066E-05	2.4643203050815986E-06	-4.7547311419594806E-06	9.113867583450818E-06	-4.484168284567163E-06	-2.03241845403726E-05	-1.6440294969691803E-06	-2.167097774736131E-05	-4.754852417436568E-06	1.868112869330962E-06	2.4818216602815252E-05	4.199217366896875E-06	-2.5513101874987316E-05	6.295385626729393E-06	1.5580260677885466E-05	9.035895242499311E-06	1.3463912666840306E-05	2.5779938026611415E-05	8.51121926980243E-06	-1.1481629924206939E-05	-4.935079441936223E-06	2.7675764216387196E-05	-1.861014247937617E-05	-1.0803088107605674E-05	-2.456579303857773E-05	-8.489845603778438E-06	2.127501294663364E-05	-1.4949585644020941E-05	2.0307321428635543E-05	5.290335920495537E-06	8.175235893034978E-06	-3.206061596994026E-05	-1.9868123651117035E-05
-8.777760615824747E-06	-2.3630046170560124E-06	-1.992180954735452E-06	5.547596446246933E-06	-1.415288294847269E-06	-2.6513061157300723E-06	-5.354539107082991E-06	-1.3102985343779112E-05	4.66052048087136E-06	5.202740891136902E-06	3.589103797315106E-06	4.10145453148106E-06	6.017624735390086E-06	4.868897774579809E-06	-2.6346769267270833E-07	-5.176165684838924E-06	3.455783787695053E-06	-7.335855834787556E-06	-3.4808868628006443E-06	1.4779362590851306E-05	1.2493756065264575E-05	-1.9051928421347994E-06	2.773620135933405E-06	-8.60136229276022E-06	2.1473068572110883E-05	-3.143688929244883E-07	-4.125496382371522E-06	-1.148890791309371E-05	-2.0868659607240752E-05	2.1451752177927377E-06	4.4796657173753335E-06	-9.101525870498144E-06	1.7560926249368425E-07	1.5397864632934603E-06	-7.896917373133564E-06	6.762095271971748E-07	-2.732408792348426E-06	1.8700061071546617E-05	1.2092283416147954E-05	3.0565113455150446E-06	-1.7458901468301924E-05	4.5783507287245715E-06
-9.691337872809906E-06	1.2158510216738746E-07	-2.1992154710016254E-06	1.7858201681496824E-06	-1.5590790481258747E-07	-7.3280948325949865E-06	2.468787432124738E-06	4.936694028787451E-06	1.887780255171456E-06	8.149051033096527E-06	-1.8084937985034034E-06	2.6424116565475562E-06	8.266129048622803E-06	-8.348929607464633E-06	-2.2953843930569184E-05	-6.926484860503656E-06	-7.58893958532175E-06	7.47657070260005E-07	4.534691558446103E-06	6.175722835477598E-06	-6.490337560637529E-07	1.2090709614812101E-05	6.841967137196515E-06	4.615569958161827E-06	3.3254229502769544E-06	-1.6680623695065388E-06	1.1807689063186944E-05	-2.5491755009650294E-06	-1.3709869293578544E-05	-6.389427963031547E-06	8.394507314831547E-06	-1.7222195597531687E-07	4.66772753796423E-06	-1.1837018479697096E-05	-4.483451600745107E-06	5.761999903588453E-06	-2.7685510012512203E-06	1.2468945391805447E-05	8.300344964652201E-06	-6.915259887395146E-06	-7.723969668698303E-06	5.876075315161818E-06
-1.6004611373784381E-06	-2.244329436917713E-06	-1.6121856585876489E-06	-7.009613610335732E-07	-1.557199384590922E-06	1.7011674556946063E-06	-7.055190988196642E-07	7.584636415352316E-07	5.235907071918385E-06	1.3287791186360393E-06	2.3042064561881578E-07	-1.3939539850286025E-07	-3.5975378156831976E-06	-2.3552717284470213E-06	1.377759723017475E-06	4.528406644042596E-06	2.3191988473015148E-07	-2.6536676827289934E-06	4.209365452639201E-06	3.886694303594219E-06	3.365802817417119E-07	-2.738337036405205E-06	-3.1621867065225793E-07	5.044731494831461E-06	4.977480620946093E-07	-4.474120791808403E-06	1.6542726685199763E-06	-2.9677369328819376E-06	1.9731145641313614E-06	6.873095306941645E-07	-5.961543197089515E-06	2.350284551342698E-06	-1.2538845922595226E-06	1.0135490559490736E-06	-7.262578477843786E-07	-8.929628220043023E-08	1.0768282887874543E-06	-1.2419172010131618E-06	-2.2468052846076093E-06	-7.027306819367149E-07	1.2975344690577931E-06	4.6454031275214204E-07
2.1986380457797746E-06	-9.024129724516694E-07	2.3770615784332788E-07	-9.985293524250348E-07	-2.308071993626083E-06	-1.8954768670281036E-07	4.1365051269814735E-06	-3.130921935877477E-06	7.094485475786852E-06	-1.4924963146803666E-06	2.3241458683109554E-06	-4.7243192967572923E-07	-1.6517281399020885E-06	2.2856851981911426E-06	-5.6825693401634754E-06	-7.218077527479345E-07	-7.0595099907976975E-06	3.159667140123281E-06	2.502490193771637E-06	5.679631441536061E-06	-8.046599686103827E-07	-6.987779078667057E-06	2.4532172782109356E-06	7.922617325112962E-06	3.753694915830746E-06	-3.7439686792332797E-06	-2.7122141412266224E-07	5.61827046881175E-06	-1.6167905641118122E-06	-2.4224757497689273E-06	6.746140583700008E-06	2.4352740156028364E-06	1.3417960498235405E-05	-8.848343872641537E-06	-6.661712260767029E-06	-3.6916676547934305E-06	-3.7350046014918457E-06	4.006881412645361E-06	2.857942315763229E-06	3.747289900230342E-06	-1.0738694222462891E-05	-8.445897886746861E-06