-0.15095508368282753	-0.19379664821103357	0.0732149203952902	-0.11319147674041789	0.11655613354090204	-0.018495492106197265	0.05749494530310425	0.026775748060274277	-0.2805236537348898	0.07763406307016105	0.5524233504584808	-0.13014155694449014	-0.9399970001368141	0.07419279877679069	0.08268651124739802	0.08914459482043896	0.06093616071894897	0.019063761346330862	0.054190339878636216	0.05276655256123106	-0.08495934601093225
-0.2941511293651382	-0.19393920531412653	0.0783641638149887	-0.11590624245097768	0.11298571199043234	0.01950160878588708	0.049818110039073604	0.018552824952231785	-0.27534377080893974	0.08589688185768307	0.008483156170170895	-0.11125303040223501	0.1273312646744309	0.07998694574650134	0.09192248825438873	0.10551702703738544	0.05237786058659871	0.13405755089916474	0.4819885671861478	-0.6678515951294482	-0.06144378759577419
-0.16738573842614363	-0.20944327308943997	0.07892839386474561	-0.16898221617515158	0.08592218126883798	-0.026363420731984666	0.061974369144421865	0.24928165033225466	-0.23171065784321412	0.08137864481369547	-0.01339660347322482	-0.10569264839810008	0.10737428876749185	0.06675617935722983	0.0784982042069646	0.0957794078416076	0.0674088475509386	0.11329522771268592	0.009040661472826835	0.05854632717660505	-0.20761913149177325
0.22356529176830794	-0.24705494503930384	0.09485682851116266	-0.21212672042486147	0.022952114316754924	0.0291980205459657	0.07889271070077122	-0.04180800856269043	-0.12951802571261578	0.12736533194264982	-0.0658603836455091	-0.3805061443351248	0.05930301148360496	0.04821306623272822	0.1386345969013389	-0.07536034148011951	-0.05238036835874856	0.0467584893299373	-0.012556822233061694	0.025303831498512522	0.15389579707199746
-0.1391393910824998	-0.20717571431852466	0.073851987784505	0.14494569894034512	0.08937773631830562	0.23974396087021577	0.04345657405769944	0.011911936277724997	-0.25909071696887886	0.09525642767413098	-0.005554905178641514	-0.12262636431698413	0.13851129112072957	0.07643548945776714	0.08635106234154091	0.05949273313052795	0.05897528414214139	0.1029434461037633	0.026102774689120624	0.06876319319643485	-0.14983342923573753
-0.021517384467752858	-0.20545612157158502	0.06718326940829526	-0.10300678856661616	0.13564770358018136	0.11513800203665148	0.2616361113813429	0.020075321326263083	-0.24407193944569402	0.06399100438232037	-0.008582149861668656	-0.08698683853309218	0.11132611009558394	0.07051120306458784	0.08620910845484075	0.08742420565351204	0.0502239199269011	0.11188983571937541	0.006780565443604662	0.05193739905443985	-0.29331297482655583
-0.09448884355381282	-0.1978971681314175	0.07438240584927988	-0.09855033242846728	0.42606904725603634	0.04316738546391341	0.061290028140936655	0.01481299861174832	-0.26483378859694096	0.07761722088321248	0.01816939632757147	-0.1174495268050174	0.12979440454111324	0.07308334151975275	0.08649223336841033	0.062057520280210686	0.06011768220974164	0.11145240661099998	0.03303262204842578	0.051016574933926785	-0.18811603329741852