-0.07489687576548713	0.03156712243627166	-0.0741077126251318	-0.018808392765229005	0.1657156637062846	-0.01591076992347778	-0.051193139501007505	-0.09218347974198261	-0.19839319516772552	0.17864838647838183	0.16166360435304414	0.015391054261425435	-2.0039454940035535	-0.010071485110175015	-0.23858561344839377	-0.00570067331447507	0.12502453353511314	0.07970904024128415	0.10640165829286219	0.025304051239656237	-0.055617307189752115
-0.09534815660179773	-0.2308267895537467	0.3153935619376654	-0.011599468656480991	0.1157921448776566	-0.04171930787102019	-0.2356372793660541	-0.04714329879843151	-0.18424059974282805	0.13597546500642685	0.08831164438438034	-0.019343700280532748	0.002531484623472276	-0.00558842037528013	-0.04157303632473464	0.002289149296552653	-0.044103818792614845	0.013704042731090061	0.32743177834413717	-1.1212098262233066	-0.09251663478258965
-0.17329002432206442	-0.7260337492360611	1.0388616939102326	-1.3831637247262902	0.09515369282569454	-0.12200678212824637	-0.17949144134397965	0.10911739184807442	-0.17878429289185846	0.013094027740915136	0.07561931318966943	-0.08914300879936837	0.004653684361961727	-0.001315806383190374	0.4308537154102294	0.049123043027691306	-0.296937535640731	0.0231532863026949	0.059970490938926715	0.021447376292729397	-0.03496232679807792
-0.023225632659128585	-0.007076871404647221	0.021549898982296003	0.006049216060769189	0.09157835237459587	-0.287890081547983	-0.03113482759601684	-0.08452886234417885	-0.17079559703989483	0.03988733350970755	0.07402950802395934	-0.23944971645641475	-0.009805507131841864	0.007688701786946445	0.2947470111075622	-1.4409663049218897	0.02755323238412903	0.024312165690207263	0.07937027352772807	0.009134377650458715	0.2535535357387056
0.0742982465847261	0.033543915865311094	-0.048814431684098346	-0.014058205479930853	0.09907476677066691	-0.023247533758040832	0.06209820561231728	-0.04413203529699745	-0.1704029937070466	0.028231188771650716	0.06709937481779867	-0.10323707656349783	-0.018189903533836066	0.007959989096220919	0.1030306604022581	0.033297978536883745	0.013415301425730095	0.041800861393534644	0.09927263852644247	0.012209617968040643	-0.1120077313475538
0.17448429478796396	0.06861577869721794	-0.12698348917566954	-0.006654137550081244	0.12315098563504098	-0.051993492941073596	-0.0226903862135715	-0.015288726553184829	-0.1666353990053218	0.09880536224601043	0.08642326471220367	-0.12444077300816273	-0.010314929647728364	-0.018626843279334594	0.019043465027990508	0.0440054978136512	-0.08116533894775126	0.025354097625161047	0.06926524088236304	0.026339760322486607	-0.10537434344263025
0.05105879789289916	-0.06473771978978918	0.04364568237349024	-0.013139313694329675	0.05287308651220426	-0.03686728277692125	-0.06414317306552	-0.02761064672316534	-0.033676667993040595	0.0759016206822509	0.08849975059334904	-0.04822969573336469	-0.021140483267256007	-1.173028287858367	0.08756539657041447	0.02223996404525632	-0.005452520465845652	-0.2933205455856992	0.05437115242130798	0.00036072016666966714	-0.04033585826378159